digraph Tree {
node [shape=box, fontname="helvetica"] ;
edge [fontname="helvetica"] ;
0 [label="num__perceived_productivity_score <= -0.139\nsquared_error = 3.524\nsamples = 14026\nvalue = 4.96"] ;
1 [label="num__perceived_productivity_score <= -0.976\nsquared_error = 0.95\nsamples = 6112\nvalue = 3.255"] ;
0 -> 1 [labeldistance=2.5, labelangle=45, headlabel="True"] ;
2 [label="num__perceived_productivity_score <= -1.39\nsquared_error = 0.416\nsamples = 2985\nvalue = 2.51"] ;
1 -> 2 ;
3 [label="(...)"] ;
2 -> 3 ;
64 [label="(...)"] ;
2 -> 64 ;
125 [label="num__perceived_productivity_score <= -0.571\nsquared_error = 0.426\nsamples = 3127\nvalue = 3.965"] ;
1 -> 125 ;
126 [label="(...)"] ;
125 -> 126 ;
185 [label="(...)"] ;
125 -> 185 ;
244 [label="num__perceived_productivity_score <= 0.788\nsquared_error = 1.569\nsamples = 7914\nvalue = 6.264"] ;
0 -> 244 [labeldistance=2.5, labelangle=-45, headlabel="False"] ;
245 [label="num__job_satisfaction_score <= -0.427\nsquared_error = 1.03\nsamples = 4276\nvalue = 5.442"] ;
244 -> 245 ;
246 [label="(...)"] ;
245 -> 246 ;
299 [label="(...)"] ;
245 -> 299 ;
360 [label="num__perceived_productivity_score <= 1.286\nsquared_error = 0.495\nsamples = 3638\nvalue = 7.221"] ;
244 -> 360 ;
361 [label="(...)"] ;
360 -> 361 ;
424 [label="(...)"] ;
360 -> 424 ;
}